34 128
34 0.0049934024 0.066791154 0.012625192 -0.0044774995 0.13514479 0.14448352 -0.08907937 0.037905935 0.025796909 -0.033908892 -0.08044737 -0.08793613 -0.11734915 0.002982098 -0.026874194 0.026386548 0.039311215 -0.21162115 0.048560757 0.13811901 0.08998795 -0.005041183 -0.17100853 -0.044422496 -0.0071493112 -0.13346037 -0.03924157 0.050103046 0.08965873 -0.15043892 -0.02736642 -0.10917127 0.062990196 -0.08252584 -0.19970366 0.10513735 0.06998489 -0.25639793 -0.034575906 0.01907907 0.03378706 -0.08656297 -0.19920841 -0.059159704 0.1621268 -0.13774508 0.058156796 0.084598735 -0.042129148 -0.028939497 0.12098315 -0.016083583 -0.14617842 0.13087498 0.124278344 -0.04912241 0.051035162 -0.022994239 0.0100548295 -0.022794219 0.056677364 -0.08781838 0.0193348 -0.070170425 -0.08582423 -0.14507057 -0.032763064 0.032148346 0.03814367 -0.28565192 -0.05003306 0.14774905 0.029919364 0.011358593 0.030760838 0.13423036 -0.121684104 -0.07830629 -0.11981811 -0.12726283 0.09329318 0.09036529 -0.20674519 -0.05866454 -0.004314703 0.028030397 0.18519907 0.017439106 -0.030704977 -0.2651895 0.009075533 0.011235411 -0.07777472 0.2052789 0.005233971 0.109173946 -0.0138928685 -0.07485494 0.13702916 -0.10222112 0.08131108 -0.15036136 -0.25303248 -0.087405495 0.17486511 -0.03851461 -0.21737882 -0.04577629 0.094427414 0.016704448 0.03657471 -0.04045998 -0.060791887 -0.16685787 -0.015844172 0.07321333 0.08861516 -0.20229341 0.045973442 -0.065288305 -0.11599384 0.118899 0.24255084 0.029849567 -0.004648153 -0.10625086 0.07040251 0.044229258
1 0.013625045 0.065594256 -0.026298461 -0.02735008 0.19045141 0.06737661 -0.09406997 -0.0465418 -0.14002542 -0.021979395 -0.09460148 -0.074739456 -0.11159875 -0.088689476 -0.030570813 0.012809064 0.009079881 -0.13640638 0.08334088 0.16114643 0.13669713 -0.08958377 -0.16138032 -0.027720718 -0.09275085 -0.024352664 -0.05611057 0.104084074 0.07532001 -0.20679565 0.016130721 0.0056238715 0.05330135 -0.11167182 -0.16799685 0.11046448 0.07445624 -0.12729242 -0.049778264 -0.001449515 0.14210853 -0.016395759 -0.16349928 -0.09909263 0.08666608 -0.10957751 0.08703422 0.19570063 0.002880599 -0.032468557 0.04453463 -0.016524935 -0.11359949 0.1532577 0.06153995 -0.02545878 0.0728523 -0.02955358 -0.0069942987 0.0013400946 0.025674397 -0.23669818 0.08690723 -0.031138971 -0.019977348 -0.061924372 -0.011929981 0.049152 0.057543356 -0.33808136 0.0061305584 0.0039043385 0.0817599 0.005065311 0.056578785 0.058649156 -0.12981126 -0.087707035 -0.12453826 -0.14300461 0.11485099 0.07906489 -0.19558994 0.10938134 -0.028145585 -0.016324557 0.16923779 -0.049719688 -0.07988866 -0.21348085 -0.010864034 -0.013772323 0.010017235 0.13597482 -0.01565923 0.06899799 0.032562863 -0.15443027 0.12946872 -0.1565199 0.10501553 -0.2237432 -0.31371957 -0.0016725576 0.093167216 0.014626165 -0.1735055 0.016064748 -0.020741757 -0.12817724 0.031186415 -0.08486843 -0.029642357 -0.1774112 -0.11919741 0.14564736 0.12549362 -0.12666199 0.02055086 -0.12361964 -0.087720945 0.112002306 0.18516049 0.06511179 0.016830899 -0.022600532 0.054408833 -0.10780093
33 -0.010011671 0.079647645 0.01703934 2.4591074e-05 0.13123582 0.15053873 -0.099485815 0.045723807 0.04246757 -0.036212083 -0.08517881 -0.08559093 -0.11440626 0.009965668 -0.031931434 0.03003339 0.04617958 -0.22177741 0.046882033 0.14246903 0.09303775 0.0022075805 -0.17781784 -0.04577421 0.0025896882 -0.14635731 -0.03248328 0.0554499 0.08596979 -0.14768474 -0.03048616 -0.11979784 0.062273897 -0.070143804 -0.19864675 0.10713694 0.06980694 -0.26733756 -0.02334351 0.025499316 0.02690643 -0.08891378 -0.19184217 -0.054072782 0.16762587 -0.13635178 0.06108707 0.079178214 -0.039134063 -0.03057017 0.13015158 -0.014627827 -0.14693753 0.12531798 0.13483219 -0.054566506 0.04747972 -0.024302071 0.01986965 -0.023129446 0.060417786 -0.07116525 0.007004591 -0.071336985 -0.09519282 -0.15140042 -0.034999542 0.030826202 0.03897581 -0.2801636 -0.059172124 0.16318321 0.024849432 0.00867906 0.027337642 0.14149141 -0.11502973 -0.07408935 -0.120899655 -0.11310429 0.093552776 0.09141286 -0.2052932 -0.07410808 -0.0045101885 0.029462518 0.1843074 0.01973037 -0.02757628 -0.27028325 0.014444568 0.013623606 -0.09147675 0.203258 0.009179206 0.11217668 -0.019063056 -0.06327889 0.143642 -0.09561632 0.07811057 -0.13706206 -0.24639866 -0.09394979 0.18107791 -0.04688812 -0.21899037 -0.050012942 0.10909464 0.035445977 0.035294376 -0.03438904 -0.06637337 -0.16374564 0.0011094215 0.0661533 0.08882457 -0.20615147 0.043496817 -0.061333805 -0.11906026 0.12245304 0.25394353 0.031164026 -0.0023594843 -0.105312325 0.07691141 0.057620913
3 0.007072772 0.06497287 0.0017278353 -0.0055326074 0.14577456 0.12107869 -0.08973177 0.011813848 -0.018927589 -0.029037675 -0.08693839 -0.08572175 -0.10644505 -0.020736223 -0.03037595 0.021898787 0.034290206 -0.18454555 0.058525287 0.14017494 0.09838851 -0.029259214 -0.15683459 -0.03528751 -0.03344079 -0.09863239 -0.036026053 0.061952364 0.08582348 -0.15236336 -0.016164543 -0.0770819 0.056094952 -0.08779137 -0.18288225 0.09736326 0.074411504 -0.21057616 -0.036391146 0.019426491 0.06414355 -0.06413533 -0.18345314 -0.063500725 0.13027066 -0.117561884 0.06173183 0.1119729 -0.027244195 -0.028553013 0.090876296 -0.016997302 -0.13188262 0.1320854 0.10060813 -0.042982507 0.056603216 -0.020933114 0.0019469158 -0.019490182 0.041062728 -0.11893472 0.04305191 -0.05811499 -0.06785358 -0.11272446 -0.029205656 0.039421905 0.034530535 -0.285059 -0.030100929 0.0968621 0.050659187 0.0108105 0.037773732 0.108793035 -0.115410395 -0.083063334 -0.111382835 -0.12682627 0.0963435 0.077027194 -0.19462068 -0.011157946 -0.0076940297 0.018605083 0.1713548 -0.0024431895 -0.03732508 -0.24349572 -0.0037142723 0.0008412748 -0.053575434 0.17822587 -0.001849809 0.09166426 -0.003488943 -0.09128456 0.1239185 -0.113585085 0.085102215 -0.16008854 -0.2546649 -0.055374324 0.13994005 -0.02647204 -0.18829805 -0.02810181 0.058803324 -0.030436674 0.026626062 -0.04675773 -0.05286811 -0.16245246 -0.036084674 0.08232178 0.0871585 -0.1691141 0.033820402 -0.07099222 -0.108004056 0.11444018 0.20924522 0.042987946 0.001555324 -0.078427166 0.06771473 -0.0045364066
2 0.022689387 0.06308775 -0.022919612 -0.01689209 0.1763545 0.08732307 -0.08908757 -0.019735502 -0.0927565 -0.022120524 -0.0909154 -0.08821443 -0.11596294 -0.06670401 -0.026439391 0.008982736 0.018011894 -0.1501704 0.07067387 0.1483942 0.11737237 -0.061364 -0.16024885 -0.035189025 -0.06850301 -0.052367926 -0.05200476 0.0832815 0.08037595 -0.17918369 0.0013858109 -0.0348628 0.060586583 -0.10215008 -0.17514396 0.10207258 0.07295652 -0.16168126 -0.051426757 -3.8001846e-05 0.106802806 -0.033621263 -0.18024552 -0.08475264 0.10845571 -0.12507404 0.06833291 0.16591431 -0.01128385 -0.03624422 0.056807566 -0.012526482 -0.12445257 0.14742656 0.08084748 -0.03593388 0.073566884 -0.029076558 -0.0051982235 -0.013068819 0.03778914 -0.1901598 0.07048119 -0.04488352 -0.03220534 -0.08721639 -0.021887014 0.0453938 0.04902625 -0.31639972 -0.011458968 0.04526249 0.07542737 0.0064908504 0.05625575 0.084873885 -0.13012868 -0.08967814 -0.124530286 -0.14401963 0.10836221 0.081053965 -0.19562149 0.060687013 -0.014524136 0.0012054408 0.17836244 -0.020905826 -0.058854986 -0.22676821 -0.011815553 -0.0045170877 -0.018223977 0.1572633 -0.013574586 0.083041936 0.022948526 -0.12822871 0.124233216 -0.1412344 0.08826969 -0.20163451 -0.29447222 -0.031845126 0.12445178 -0.0022226716 -0.18774775 -0.0009502672 0.0070221145 -0.09185959 0.02551387 -0.06319238 -0.046507448 -0.17187585 -0.095162585 0.1204734 0.10572491 -0.14431435 0.031141162 -0.10160698 -0.09123022 0.109149225 0.19266208 0.052481703 0.006244246 -0.051079206 0.051672585 -0.057132877
4 0.018433075 0.065419875 -0.023778407 -0.016725741 0.18161814 0.084136166 -0.09834167 -0.029856699 -0.11133797 -0.019599056 -0.091431476 -0.082650706 -0.10903364 -0.076803185 -0.030815637 0.0086903805 0.014662137 -0.15046033 0.07543134 0.15494645 0.12488761 -0.075404145 -0.15313274 -0.028037686 -0.07955713 -0.043487485 -0.051081296 0.09534774 0.08232473 -0.1940603 0.0055009117 -0.015948495 0.059240233 -0.104826726 -0.17448843 0.10782284 0.07374798 -0.14751512 -0.04905328 0.002744834 0.124839336 -0.033799887 -0.17256145 -0.09201304 0.102348804 -0.11715856 0.08337805 0.17774782 -0.0046607642 -0.026228439 0.052302126 -0.012325964 -0.11963947 0.14786422 0.074937195 -0.034417372 0.06991993 -0.03285307 -0.0072033075 -0.0053601116 0.026416231 -0.20510626 0.07804704 -0.033249646 -0.03158174 -0.075323634 -0.015195547 0.05014827 0.04729476 -0.3259281 -0.0055001774 0.03219879 0.07986558 0.0040716133 0.0559939 0.069415756 -0.1269771 -0.09270287 -0.12277377 -0.1437854 0.115685456 0.086796984 -0.2017085 0.08226303 -0.024008393 -0.0067615397 0.1726685 -0.032981873 -0.071161866 -0.22527064 -0.0072073555 -0.01120251 -0.0032222543 0.14527635 -0.014885691 0.07316998 0.02382039 -0.1407837 0.13345866 -0.14949715 0.09356364 -0.21003918 -0.3076295 -0.01903857 0.10888661 -0.0010200276 -0.18112095 0.0076251556 0.0003619742 -0.10741829 0.026989376 -0.072224244 -0.036570143 -0.17131506 -0.10106352 0.13341315 0.10862793 -0.13920218 0.020062923 -0.10709463 -0.09263649 0.11637969 0.187198 0.05774862 0.009748422 -0.0330503 0.056858826 -0.07685624
32 0.001092675 0.068439044 0.0038781352 -0.0013723522 0.13374203 0.123983435 -0.08866774 0.0187527 -0.007483919 -0.02973794 -0.08253434 -0.08241548 -0.106229715 -0.015956208 -0.029852785 0.02121705 0.03384067 -0.18159868 0.054520514 0.13200551 0.093291916 -0.021581382 -0.16642246 -0.037166286 -0.02413444 -0.10824127 -0.03968628 0.06610103 0.07711491 -0.15367588 -0.017018884 -0.08224242 0.058092404 -0.08112332 -0.18601017 0.10629143 0.06884614 -0.22537884 -0.03465256 0.020781497 0.054158468 -0.06574223 -0.18396996 -0.064351544 0.13806893 -0.12568453 0.06425622 0.107502386 -0.033671368 -0.030446861 0.09897151 -0.015019651 -0.13268746 0.13520597 0.11183713 -0.050688073 0.06135584 -0.025606798 0.0064164586 -0.019953929 0.049707964 -0.11846789 0.038277794 -0.057950016 -0.07204948 -0.1248723 -0.032893453 0.03875375 0.043129425 -0.28337604 -0.03813096 0.11056658 0.043635502 0.007823824 0.034764875 0.11587141 -0.113869786 -0.08046776 -0.11979413 -0.124593295 0.09425108 0.08700061 -0.19820747 -0.02625872 -0.010090495 0.01898068 0.1824947 0.0018555088 -0.039163075 -0.24885502 0.0048507666 0.0029710894 -0.061604876 0.18358392 0.00091034756 0.092084184 -0.0011360793 -0.08591582 0.13711947 -0.11045014 0.084490545 -0.15559706 -0.25525 -0.064991996 0.15135533 -0.024851281 -0.20352712 -0.032277156 0.062332302 -0.013696861 0.030906258 -0.043416414 -0.057099737 -0.15883234 -0.031233812 0.0820986 0.09372509 -0.17402674 0.040381573 -0.077247836 -0.10334088 0.116175205 0.21995765 0.040924355 -0.004346321 -0.07745141 0.070315495 0.014248061
14 0.014206542 0.06421094 -0.00859636 -0.010930997 0.15372118 0.09414157 -0.089509085 -0.012498369 -0.06391216 -0.01995661 -0.08527875 -0.07747689 -0.10306746 -0.046604242 -0.029068748 0.01194679 0.025503792 -0.16421804 0.061835334 0.14396343 0.1038757 -0.050267827 -0.14996785 -0.028980384 -0.050993185 -0.06421054 -0.04343118 0.07210204 0.08061379 -0.16917807 -0.00074086385 -0.04823666 0.05843687 -0.09669056 -0.17677999 0.10382144 0.07383253 -0.17683671 -0.043037716 0.010566977 0.09170383 -0.046567533 -0.17255364 -0.076166436 0.117110424 -0.1198107 0.07340417 0.13935697 -0.012814366 -0.027950231 0.067814074 -0.012261259 -0.1263297 0.13497852 0.0838671 -0.037700746 0.063296765 -0.024850298 -0.0014331054 -0.0106104165 0.03632896 -0.16264382 0.059596658 -0.04801544 -0.04789032 -0.09374798 -0.021972096 0.0459859 0.044342194 -0.30089357 -0.016123284 0.06882345 0.05798649 0.0035764158 0.043777857 0.084760964 -0.11488463 -0.0802359 -0.113718174 -0.12752886 0.1010102 0.08033001 -0.19043377 0.03154529 -0.013817908 0.008372949 0.16569668 -0.015322767 -0.051557586 -0.22905728 -0.009237587 -0.0008689441 -0.026643792 0.1603649 -0.0076964875 0.07825558 0.008197845 -0.11715702 0.12744462 -0.12556008 0.08831176 -0.18333311 -0.27606347 -0.04199538 0.12829033 -0.012673757 -0.1858243 -0.011666776 0.025651164 -0.06378617 0.027443301 -0.060965776 -0.04759634 -0.16821036 -0.070501156 0.10399556 0.10076032 -0.15558901 0.030365406 -0.09275217 -0.09788933 0.110274605 0.20277502 0.04734186 0.006965723 -0.058608178 0.057637673 -0.033881288
24 -0.0100251315 0.07305324 0.0034716583 0.0055203014 0.13188526 0.14093363 -0.09882469 0.039435584 0.014902031 -0.032470953 -0.0907707 -0.088684484 -0.1160328 0.0039423727 -0.035119805 0.029054161 0.03898764 -0.21119098 0.05528549 0.1335187 0.094915904 -0.010721066 -0.18240535 -0.04903757 -0.01158732 -0.13268632 -0.03313946 0.06409839 0.08536984 -0.15070942 -0.02174102 -0.096259564 0.054065697 -0.07392846 -0.1930884 0.109041356 0.07230672 -0.25418025 -0.025547065 0.023536548 0.037721626 -0.07845209 -0.19283038 -0.058584027 0.15873055 -0.13313393 0.06574945 0.092809215 -0.038530502 -0.025237024 0.12098109 -0.01740131 -0.14108749 0.12653366 0.12735958 -0.05887092 0.059360478 -0.024560794 0.01148544 -0.023776127 0.054381102 -0.09421266 0.017665878 -0.06469214 -0.081118815 -0.1357408 -0.03591894 0.04099088 0.033106904 -0.28059408 -0.05281206 0.14165185 0.039208308 0.005188608 0.03038528 0.12479292 -0.11426761 -0.078268096 -0.11378649 -0.1181748 0.09536956 0.09359323 -0.2025813 -0.057577528 -0.017510993 0.02484165 0.18341897 0.013534759 -0.032664627 -0.26497006 0.006351284 0.007005489 -0.083709545 0.19527003 0.010207282 0.107166395 -0.012151642 -0.07018637 0.14409766 -0.10462934 0.08076862 -0.14047821 -0.24462818 -0.08289019 0.168736 -0.03850754 -0.20621759 -0.044030968 0.092215575 0.018058749 0.028964948 -0.03735167 -0.066337936 -0.16268674 -0.005441699 0.07233169 0.08582299 -0.19340147 0.047721855 -0.06743723 -0.113879666 0.12334083 0.24027096 0.034098666 -0.0019080127 -0.08756035 0.07627739 0.034533698
8 0.01227068 0.06064151 -0.010971488 -0.010596919 0.16602983 0.10325343 -0.0931767 -0.008503013 -0.0631568 -0.027135761 -0.08788023 -0.08583276 -0.10927244 -0.049795784 -0.029950554 0.009788157 0.01870096 -0.17059079 0.06919595 0.14665918 0.10945764 -0.054618143 -0.16138096 -0.027874146 -0.05564963 -0.07084343 -0.047006506 0.07761872 0.07968991 -0.17189369 -0.0025753295 -0.05020867 0.055832803 -0.095650144 -0.18057218 0.10586236 0.07902664 -0.17919713 -0.040523715 0.008111589 0.09195087 -0.041208103 -0.17965747 -0.07709022 0.11320502 -0.118777364 0.07611616 0.14603388 -0.016705193 -0.028183145 0.06999524 -0.009677403 -0.12646835 0.14427777 0.08753074 -0.04162353 0.06263035 -0.031777777 -0.002342474 -0.012193226 0.033513986 -0.15911862 0.06442901 -0.042327423 -0.047130603 -0.09297996 -0.020887673 0.045079097 0.045546364 -0.29877013 -0.020528618 0.06692283 0.06471599 0.0042953887 0.049068686 0.08640651 -0.11973994 -0.08666494 -0.121753655 -0.12853706 0.106415056 0.08455568 -0.19838072 0.03828359 -0.01953045 0.003863289 0.17125273 -0.02168106 -0.053190112 -0.23028389 -0.0093429 0.0025736182 -0.027986204 0.16751447 -0.010258349 0.07911593 0.014947092 -0.11242118 0.13043493 -0.12936746 0.08980118 -0.19062182 -0.286801 -0.037860658 0.12702669 -0.012289012 -0.18436112 -0.010401792 0.024997484 -0.06874442 0.030685408 -0.066015966 -0.050941605 -0.16723266 -0.07575388 0.11028835 0.10549867 -0.15725407 0.027776178 -0.08884984 -0.100482754 0.1187119 0.20459267 0.04692821 0.0071619996 -0.054810163 0.059767734 -0.039887648
6 0.0050506704 0.07131501 -0.03763645 -0.02707756 0.18822642 0.0711481 -0.10320403 -0.04454235 -0.16106294 -0.020201093 -0.10401462 -0.07663739 -0.11030879 -0.10622199 -0.032116793 0.022357753 0.00023824269 -0.11937309 0.080508865 0.17227374 0.14929542 -0.09216472 -0.17366107 -0.041573342 -0.10372657 -0.013102411 -0.0635444 0.1262156 0.06377238 -0.2201652 0.01898282 0.020531587 0.056859273 -0.09643443 -0.15445158 0.106697045 0.067635976 -0.11391693 -0.034652088 -0.0096027665 0.14121813 -0.01372524 -0.14668776 -0.10145055 0.07734615 -0.11429856 0.088819675 0.21629211 0.012339202 -0.037771784 0.047644023 -0.027325187 -0.11798936 0.16775768 0.07176363 -0.022907063 0.079275355 -0.027755534 -0.004427367 0.0069499677 0.018675543 -0.25316602 0.07874267 -0.033444937 -0.008029839 -0.06286103 0.00037181092 0.04261557 0.059649922 -0.35333475 -0.0007771505 0.00022382199 0.08139087 0.006020228 0.049727846 0.062380277 -0.13728413 -0.088893145 -0.12997217 -0.13845623 0.12384057 0.08971183 -0.19785583 0.120888144 -0.040301364 -0.022157995 0.18473798 -0.0507286 -0.086883545 -0.21385911 0.0080204485 -0.025219686 0.016400691 0.1302915 -0.0131073855 0.07013404 0.048189424 -0.16043603 0.14201176 -0.15928885 0.10017539 -0.22017929 -0.30941373 0.012306199 0.094883054 0.025243953 -0.17163152 0.015492311 -0.026413042 -0.12208904 0.034463182 -0.09273818 -0.023185695 -0.17745174 -0.12481533 0.15975317 0.13359287 -0.12121026 0.023711294 -0.12654287 -0.078250185 0.12125582 0.19567104 0.07818049 0.021586008 -0.015660973 0.05983287 -0.11711066
30 -0.004484566 0.076130785 0.000459086 -0.0071550985 0.1404551 0.13059664 -0.09873288 0.027191157 -0.005801828 -0.025597125 -0.0881469 -0.08072936 -0.116408825 -0.016957441 -0.031307686 0.022854183 0.030670498 -0.19759855 0.056781963 0.14253373 0.1038495 -0.025347842 -0.17500074 -0.0437931 -0.022684256 -0.113347195 -0.03591636 0.07172386 0.08112954 -0.16003752 -0.018360501 -0.084326155 0.058382194 -0.08067782 -0.18488717 0.10617613 0.06542426 -0.22536863 -0.027732925 0.023028746 0.05086729 -0.07034515 -0.18041636 -0.06814208 0.14245835 -0.13146462 0.07038975 0.10729712 -0.030849371 -0.026532246 0.11069323 -0.015829992 -0.13387084 0.137081 0.118580446 -0.046017863 0.055986572 -0.02096022 0.013029796 -0.014488896 0.047692943 -0.11357362 0.026672231 -0.056698687 -0.0704735 -0.12814361 -0.02594958 0.038524333 0.03755607 -0.29033035 -0.040855046 0.1238275 0.037483692 0.0052320655 0.03137693 0.12176372 -0.11882775 -0.07771637 -0.11844027 -0.1195843 0.094641395 0.08302383 -0.19860417 -0.03154052 -0.018656999 0.015310959 0.18403545 0.0033750762 -0.037038043 -0.252909 0.008200024 0.006043825 -0.06719082 0.18783511 0.007690114 0.09647336 0.00011346443 -0.082162574 0.13824128 -0.11159082 0.08024568 -0.152607 -0.25230876 -0.06680573 0.15431671 -0.024044773 -0.20081972 -0.029309792 0.07478641 -0.0017520215 0.029779552 -0.04592069 -0.060161825 -0.16292928 -0.024251116 0.083512515 0.09636319 -0.1823764 0.04066162 -0.07229276 -0.109253235 0.118266635 0.23352641 0.042664807 -0.0022088739 -0.08660918 0.07177866 0.0122586
7 0.009867989 0.067794085 -0.0367299 -0.03532132 0.19103357 0.062395956 -0.09637877 -0.050151818 -0.17498602 -0.016749553 -0.09688002 -0.06637529 -0.10765364 -0.117677785 -0.026036378 0.017478649 -0.0022375053 -0.10697119 0.081392914 0.17025168 0.1486129 -0.09638623 -0.16292605 -0.03249049 -0.110922486 0.0036985462 -0.06153293 0.12741385 0.06176077 -0.22197193 0.0237831 0.036149733 0.057152048 -0.10259235 -0.14802839 0.106319144 0.061630066 -0.092328 -0.043706074 -0.005455345 0.15679799 -0.005315846 -0.13938135 -0.09915531 0.06649374 -0.105056405 0.093785234 0.22729516 0.0132289035 -0.039902475 0.03582876 -0.026426809 -0.11004413 0.16982877 0.057367194 -0.018327016 0.07355035 -0.021531627 -0.008715566 0.0075831125 0.013238725 -0.27209488 0.085816234 -0.021898096 -0.0025114021 -0.055855602 0.0030288552 0.046261333 0.056586437 -0.35765958 0.012722726 -0.017597958 0.09157165 0.0093135405 0.050632782 0.05380365 -0.13622124 -0.09037366 -0.12227128 -0.1392174 0.12052726 0.08262298 -0.195124 0.13755716 -0.03955179 -0.030783799 0.1831543 -0.064045995 -0.09143848 -0.20748521 0.0039118803 -0.02676688 0.030104233 0.11900307 -0.01604805 0.061047025 0.04842872 -0.16933331 0.13187958 -0.16871096 0.1102426 -0.2284546 -0.31697303 0.017891997 0.08142518 0.0348705 -0.16366799 0.025699718 -0.04169567 -0.14037366 0.03186767 -0.09437342 -0.021607723 -0.17964564 -0.13319987 0.16353905 0.12908664 -0.1082403 0.01817163 -0.13332216 -0.07516079 0.11441854 0.18172897 0.07674676 0.026651256 -0.0011975612 0.062170424 -0.13489138
28 -0.0014528139 0.072442524 -0.004876641 -0.0032374877 0.15209864 0.12822239 -0.10282532 0.014811004 -0.01974383 -0.026868394 -0.09617847 -0.08967576 -0.11467788 -0.026187355 -0.032530896 0.025819989 0.029535513 -0.19465983 0.061208937 0.14483196 0.10968168 -0.031369973 -0.17915043 -0.044251084 -0.030794403 -0.10784883 -0.040462673 0.07849703 0.081640534 -0.17187716 -0.016554564 -0.076818414 0.052951735 -0.08578367 -0.18893911 0.109485 0.07461625 -0.22649544 -0.029754078 0.018098464 0.06464873 -0.060307488 -0.18504274 -0.070672385 0.1416807 -0.13157311 0.07159407 0.1217921 -0.025601545 -0.032047443 0.09653493 -0.016479308 -0.1325226 0.14154918 0.11414257 -0.05042466 0.06049966 -0.02204015 0.009339355 -0.017538821 0.044161495 -0.1267637 0.040049955 -0.057042222 -0.072219916 -0.12212523 -0.03200455 0.043525193 0.039508693 -0.29850253 -0.041705333 0.11040169 0.051160112 0.009075951 0.03657316 0.11701231 -0.1174306 -0.08192706 -0.12380416 -0.12352444 0.10428208 0.08932122 -0.20771615 -0.015350081 -0.021397125 0.013608188 0.18930437 -0.004851401 -0.0450078 -0.2580345 0.0047656354 -0.0013711482 -0.061249256 0.18719405 0.0051249056 0.10001022 0.0014113891 -0.09786553 0.14299387 -0.11906545 0.087911844 -0.16804135 -0.27066106 -0.06344604 0.15147682 -0.02197574 -0.20478787 -0.028350497 0.06120085 -0.019099023 0.028749708 -0.04989573 -0.05856053 -0.1708141 -0.041345097 0.08993169 0.099695094 -0.18037798 0.03950242 -0.0858514 -0.10900691 0.12336594 0.23225439 0.04260289 -0.00042625287 -0.08090219 0.07208598 0.0042726747
9 0.0029332798 0.06865349 0.0021640793 -0.012817917 0.1549568 0.12101108 -0.096360065 0.0066240905 -0.03386685 -0.02525895 -0.08834719 -0.08409017 -0.11476499 -0.027288474 -0.031506836 0.019705717 0.033044662 -0.18755795 0.06257675 0.1518068 0.10411187 -0.037640043 -0.16552775 -0.035287533 -0.036138956 -0.09028391 -0.03889779 0.078110345 0.08230213 -0.17154899 -0.008223329 -0.07050407 0.06002313 -0.09082226 -0.18897747 0.10741892 0.07343731 -0.2115323 -0.03616542 0.01690363 0.071750864 -0.061356504 -0.18663487 -0.07232888 0.1270259 -0.13055408 0.07102755 0.12791206 -0.024044404 -0.030791651 0.09351721 -0.011787383 -0.13667662 0.1417784 0.108497195 -0.043225303 0.06050955 -0.02851976 0.01071433 -0.01450462 0.04007668 -0.14047034 0.04715294 -0.054612506 -0.06438402 -0.11230533 -0.026262525 0.04464633 0.044446755 -0.30668795 -0.027712533 0.0978245 0.050829265 0.004850682 0.04339282 0.10989035 -0.12462778 -0.08087384 -0.123606 -0.13428484 0.10909938 0.08478165 -0.20807232 -0.002123211 -0.015011254 0.014222515 0.18695971 -0.011504369 -0.04759335 -0.25198507 0.00043500375 0.0068119005 -0.051105063 0.18131089 -0.00067377504 0.090443105 0.0027206487 -0.1027721 0.14112656 -0.123198345 0.08537966 -0.18054304 -0.27865094 -0.053423934 0.14600176 -0.020583855 -0.20578852 -0.025456404 0.05589914 -0.030248463 0.031901434 -0.056999713 -0.053850148 -0.16690126 -0.048653215 0.098519236 0.10438593 -0.17410322 0.0364444 -0.08182451 -0.110299245 0.12533571 0.22484751 0.04055735 -0.00018485988 -0.075382374 0.06756674 -0.0068399287
29 0.0033391428 0.066540055 0.00033479225 -0.008188673 0.14806081 0.12720434 -0.09737906 0.02055295 -0.010389981 -0.030821094 -0.09292715 -0.09068927 -0.11830859 -0.015145297 -0.026898004 0.01837238 0.030053511 -0.20101744 0.058688007 0.14946795 0.10599261 -0.02316825 -0.17343381 -0.03834874 -0.025904989 -0.11303759 -0.04054794 0.06941088 0.08196245 -0.1615054 -0.01301646 -0.083467446 0.058597848 -0.09406485 -0.19748855 0.11476738 0.07943912 -0.23497206 -0.035893254 0.019905053 0.05694846 -0.06780737 -0.19190678 -0.064505816 0.14387777 -0.13509828 0.06527799 0.11551922 -0.029844295 -0.03140114 0.1024174 -0.011214991 -0.14177178 0.14509405 0.11752724 -0.04792619 0.06260345 -0.03036674 0.0075233956 -0.02315243 0.051336024 -0.122485965 0.042777985 -0.061085816 -0.07624268 -0.12881406 -0.034839466 0.043978997 0.040406883 -0.29715946 -0.0408914 0.113726966 0.049882095 0.01320096 0.036519874 0.118942745 -0.122078516 -0.08055157 -0.12131977 -0.12776622 0.103767745 0.08959615 -0.2098783 -0.019411802 -0.013552251 0.01974227 0.1925843 -0.0029809484 -0.041691918 -0.25903443 0.00019187131 0.004204264 -0.063174926 0.19717497 -0.0027192025 0.10397752 7.528792e-05 -0.09144127 0.14128202 -0.11910219 0.08925292 -0.1694481 -0.27790973 -0.065073654 0.15689582 -0.026590496 -0.21186183 -0.032412823 0.07017029 -0.014299416 0.034844186 -0.05061329 -0.062219977 -0.17023027 -0.03645446 0.08924148 0.09767494 -0.18661101 0.041774057 -0.07923195 -0.114193454 0.12530917 0.23644273 0.041163802 -0.0035930332 -0.09000883 0.072104685 0.014698865
5 0.005984724 0.069465384 -0.028918123 -0.024075827 0.17445625 0.08113904 -0.09755472 -0.030148372 -0.12728812 -0.02583498 -0.09589472 -0.071856864 -0.10825877 -0.083945915 -0.02910398 0.015883762 0.006953517 -0.13056281 0.07399392 0.15460488 0.12755774 -0.0754719 -0.15632798 -0.035806663 -0.08679213 -0.032465026 -0.052347913 0.10755131 0.06660684 -0.19497122 0.0072843647 0.0017202065 0.052003715 -0.10198502 -0.16310936 0.10269901 0.069287576 -0.13208203 -0.03722528 0.0035428673 0.12631454 -0.024851564 -0.16022563 -0.09036056 0.08652787 -0.11113903 0.08175919 0.18841542 0.005559511 -0.032895707 0.05790299 -0.019575762 -0.119408466 0.15705173 0.07577067 -0.032613717 0.071095824 -0.023945237 -0.0043637315 -0.0037127438 0.022749338 -0.22168896 0.07276601 -0.03862333 -0.027346049 -0.075918846 -0.011960554 0.046152245 0.05115937 -0.33377323 -0.004186452 0.023172801 0.07628859 0.010202251 0.050342053 0.07035129 -0.12899312 -0.08681411 -0.12588784 -0.13703258 0.11723603 0.081738465 -0.19340046 0.09163785 -0.032935247 -0.013111951 0.1817556 -0.042186 -0.07159109 -0.2180788 -0.00037914648 -0.015834643 -0.0025497298 0.1415381 -0.016711576 0.07229364 0.03417736 -0.14846693 0.13513523 -0.15085465 0.1028444 -0.21219853 -0.30232298 -0.005206047 0.10463592 0.01105074 -0.17318758 0.007547877 -0.0056725265 -0.109588586 0.03275414 -0.079295404 -0.03568541 -0.17514816 -0.10845618 0.14059478 0.12145256 -0.12924959 0.019794742 -0.11205154 -0.09073975 0.11802812 0.19416322 0.065228954 0.020327752 -0.024505857 0.061539695 -0.09120585
31 0.009143637 0.067079954 0.003733292 -0.014203719 0.14519432 0.11289821 -0.090937845 0.0037197608 -0.028291631 -0.028266037 -0.08672504 -0.080680326 -0.10841941 -0.02630753 -0.025553646 0.019723723 0.030931605 -0.17776959 0.060584884 0.14291224 0.10158141 -0.03512608 -0.15521814 -0.03146314 -0.031005446 -0.0892406 -0.043479435 0.065760605 0.07998754 -0.16417369 -0.010210941 -0.07038119 0.060364533 -0.087225944 -0.1788526 0.10553157 0.07396818 -0.19889313 -0.034992695 0.01462832 0.06892407 -0.059996117 -0.18019481 -0.066964746 0.13264841 -0.12665288 0.06386849 0.11818053 -0.021773621 -0.030731661 0.08976806 -0.009666728 -0.12704572 0.134052 0.10222609 -0.03953801 0.053548254 -0.029154073 0.0029955015 -0.015097777 0.04114759 -0.13627611 0.045641836 -0.051329464 -0.059816375 -0.11130918 -0.026415978 0.04079774 0.04477283 -0.2915012 -0.033898182 0.0954338 0.045143217 0.0066162664 0.03987095 0.103227 -0.11966605 -0.08205033 -0.114422895 -0.12805562 0.10010974 0.08157339 -0.19780937 0.0027554042 -0.012102301 0.014701365 0.17210607 -0.008156326 -0.04313443 -0.23767716 0.0014446058 0.0044210143 -0.04730406 0.16922265 -0.0066651143 0.08715055 0.00070432323 -0.09767634 0.13286991 -0.1157072 0.08191012 -0.1716422 -0.264779 -0.05247934 0.14265871 -0.020661354 -0.19465008 -0.024607327 0.04816801 -0.03182069 0.035106916 -0.048944086 -0.053473614 -0.16067587 -0.051154196 0.09497536 0.09714767 -0.17070872 0.03394331 -0.08004769 -0.1062106 0.1124161 0.21079627 0.03786085 0.0036906688 -0.075112075 0.064627096 -0.0063960548
20 0.0050949454 0.06592478 0.0010689863 -0.0065668356 0.156306 0.118770294 -0.09610331 0.0029342836 -0.03389748 -0.024405805 -0.08517622 -0.084335424 -0.11229564 -0.028712446 -0.026931882 0.016773045 0.03199306 -0.18536112 0.05652568 0.1456935 0.10033806 -0.0388441 -0.16499369 -0.0378279 -0.039227773 -0.090563655 -0.040074393 0.06885381 0.08607864 -0.16625461 -0.008769428 -0.071227364 0.061421245 -0.09380016 -0.18848623 0.10819103 0.075851314 -0.21005647 -0.040205847 0.011149769 0.07257141 -0.062485248 -0.18850738 -0.07114029 0.13547626 -0.13030183 0.06753791 0.12895103 -0.022313155 -0.030179277 0.085281126 -0.015147333 -0.128766 0.13641116 0.107141115 -0.04214291 0.062153786 -0.028108919 0.0063833315 -0.015795255 0.04292417 -0.14098375 0.0427923 -0.051502667 -0.062067937 -0.11360557 -0.024913603 0.04154443 0.04332141 -0.30391496 -0.032389477 0.09582739 0.049770877 0.007254142 0.04201663 0.10286688 -0.12484241 -0.086445466 -0.11793765 -0.13396053 0.09863762 0.082339205 -0.20650603 -0.0004539209 -0.012506556 0.017226133 0.17862654 -0.008506088 -0.05083385 -0.24860077 -0.005597118 -0.00018135313 -0.050665356 0.17873068 -0.004645473 0.09464448 0.0017969619 -0.10694158 0.13427292 -0.12344303 0.08909434 -0.1762761 -0.2761045 -0.056058083 0.14095192 -0.021886986 -0.19646293 -0.019780062 0.05248736 -0.03854601 0.032294486 -0.05011973 -0.05674127 -0.16988355 -0.051006533 0.09298878 0.10007077 -0.1724951 0.035479225 -0.08521097 -0.10572629 0.12054045 0.21412598 0.043164432 -0.0012761538 -0.07522809 0.06687143 -0.009366212
11 0.010806986 0.07061591 -0.021237725 -0.02885483 0.18437351 0.08722199 -0.09666315 -0.032319695 -0.12305986 -0.023176592 -0.092829384 -0.07578538 -0.11326793 -0.08459663 -0.025472125 0.01922088 0.010590465 -0.13966359 0.07882819 0.16696425 0.12882586 -0.07506785 -0.16267656 -0.037580155 -0.08069562 -0.034943696 -0.05578482 0.109239124 0.069975555 -0.20583808 0.0047950493 -0.007514186 0.055810872 -0.09882816 -0.16438803 0.11336888 0.06853906 -0.14352179 -0.04227749 -0.0029063353 0.12157789 -0.030909857 -0.16082597 -0.09241733 0.09855758 -0.11993949 0.08730493 0.19282758 0.0043579964 -0.037616756 0.05868188 -0.024934387 -0.12213498 0.1594439 0.08258802 -0.028289879 0.06846191 -0.024318138 -0.0024794214 -0.0024640649 0.027621048 -0.22495748 0.075157754 -0.03671873 -0.025490103 -0.07682133 -0.011061454 0.04291276 0.051496908 -0.34549052 -0.0050427495 0.026137125 0.077594504 0.012064262 0.04508014 0.07066243 -0.13268955 -0.092724666 -0.12489232 -0.13854125 0.11738314 0.08998439 -0.20198834 0.090894185 -0.026818741 -0.010912659 0.18692647 -0.044912536 -0.073086284 -0.23239155 0.0012788433 -0.013698786 -0.00417674 0.15017766 -0.014491715 0.07502901 0.03500239 -0.14931317 0.14211166 -0.1523645 0.1043397 -0.2137566 -0.31247425 -0.007842459 0.102889486 0.0077730413 -0.18508299 0.002975155 -0.006400699 -0.10715003 0.029389955 -0.08214585 -0.036666106 -0.17688167 -0.10841377 0.14410493 0.12645896 -0.1422304 0.027835961 -0.11984389 -0.092614144 0.121763796 0.19889691 0.06671903 0.018056512 -0.032234117 0.06788955 -0.08796684
25 -0.009981579 0.06940566 -0.0021493798 0.0028274492 0.13436297 0.12848437 -0.101435356 0.027949432 0.002603924 -0.030215062 -0.09417683 -0.08757129 -0.11154232 -0.007769438 -0.033052463 0.026028456 0.03390689 -0.20263511 0.055619575 0.13685192 0.10301231 -0.016642649 -0.18308806 -0.04556344 -0.01626061 -0.12194775 -0.040515944 0.07225582 0.08219866 -0.1576984 -0.020575896 -0.0894709 0.05129027 -0.07859798 -0.1910839 0.10941813 0.06975289 -0.23778747 -0.028866554 0.021758689 0.0494897 -0.061905626 -0.1866539 -0.06032802 0.14080103 -0.13132536 0.067966394 0.09948658 -0.034785256 -0.032262355 0.11219494 -0.016916284 -0.13917863 0.13162223 0.11985152 -0.055354033 0.05979631 -0.02493485 0.014345646 -0.016391238 0.0533886 -0.1091889 0.029784193 -0.058788005 -0.07297861 -0.12974064 -0.031285405 0.040344376 0.03971678 -0.27888432 -0.043506823 0.12396756 0.04601895 0.011836233 0.029926302 0.12103273 -0.110871635 -0.0743047 -0.11169032 -0.118455105 0.09796799 0.08986828 -0.20173644 -0.038678743 -0.023017932 0.016871132 0.18557581 0.005015123 -0.041466404 -0.2510455 0.005523742 0.0024593528 -0.07226517 0.18906331 0.0075009437 0.100076854 -0.0075910673 -0.081025526 0.14402789 -0.10595596 0.08240882 -0.1476226 -0.24688205 -0.07290802 0.15632604 -0.026258998 -0.20345975 -0.038950477 0.07514182 -0.0004617853 0.028817521 -0.049425412 -0.058333207 -0.15940599 -0.018061476 0.07834403 0.09112472 -0.18462858 0.04362258 -0.07700378 -0.11182912 0.12167307 0.23778035 0.037849844 -0.00030078046 -0.081548624 0.07205707 0.020868398
26 -0.0014066466 0.07336495 -0.0012174624 -0.006815867 0.15203324 0.1284056 -0.10346696 0.021097153 -0.024665076 -0.02830546 -0.09134293 -0.08878801 -0.11982808 -0.02415327 -0.030415617 0.024226362 0.032910593 -0.1988293 0.062180232 0.15098807 0.11360434 -0.026900211 -0.1867203 -0.05097378 -0.030117994 -0.11396265 -0.038359918 0.079349 0.079263225 -0.17284031 -0.011657432 -0.07925075 0.05398575 -0.08687153 -0.19271265 0.11304185 0.07166318 -0.23474997 -0.027405662 0.019324377 0.06089824 -0.062064625 -0.19026767 -0.07392792 0.14697768 -0.13186333 0.07567977 0.12292029 -0.031765122 -0.03215607 0.108955294 -0.021811437 -0.13632515 0.14332706 0.11684625 -0.05363355 0.065267704 -0.0227314 0.008697357 -0.020141207 0.053416464 -0.12932488 0.038517017 -0.05908972 -0.075023875 -0.13126735 -0.033436336 0.043910637 0.03809048 -0.3084756 -0.04244496 0.11717268 0.049601436 0.005584599 0.03203052 0.1185174 -0.1251113 -0.07878985 -0.12488738 -0.12670149 0.107251205 0.095866986 -0.21378474 -0.01589338 -0.02187298 0.017675921 0.19400375 -0.0068975305 -0.046864748 -0.2641437 0.0018690069 0.00013032247 -0.060658388 0.19431013 0.004154886 0.1033144 -0.0021557002 -0.0980537 0.15135287 -0.12052904 0.08869243 -0.17164743 -0.271137 -0.061176997 0.15622354 -0.027621573 -0.21135287 -0.028799785 0.06861144 -0.018633412 0.02748762 -0.05215832 -0.056933146 -0.1712347 -0.03608786 0.09401129 0.10470161 -0.18279192 0.043156642 -0.091373935 -0.109418 0.1264395 0.23734562 0.04841209 -0.0009868873 -0.07487696 0.0784112 0.006635944
21 0.0046340534 0.068913005 0.00010412656 -0.0083902525 0.14894508 0.1249396 -0.09560353 0.013973928 -0.026182245 -0.024454731 -0.089444034 -0.08190591 -0.11216377 -0.027142141 -0.032583095 0.017933672 0.032620143 -0.18612137 0.05695946 0.14696796 0.100542806 -0.03264853 -0.16759744 -0.035836138 -0.030401077 -0.097209655 -0.04560092 0.0714109 0.083808854 -0.16772787 -0.015095587 -0.0759473 0.06021431 -0.0869418 -0.18645777 0.110594854 0.07009925 -0.21578753 -0.033448536 0.013627659 0.06339304 -0.06615462 -0.18017836 -0.06823102 0.13355538 -0.12629186 0.06992223 0.11640789 -0.02756102 -0.028943598 0.09571812 -0.018861668 -0.13264067 0.13705584 0.11042169 -0.04625929 0.05505474 -0.026045118 0.0070984573 -0.0153791495 0.040772893 -0.13313529 0.03690071 -0.05769366 -0.06126139 -0.11649603 -0.028071832 0.04085528 0.040735647 -0.2944578 -0.03083038 0.100153595 0.04430176 0.006680003 0.03486503 0.11113078 -0.12552741 -0.08385689 -0.123362996 -0.1241233 0.10225853 0.08595833 -0.2056222 -0.0069806 -0.008339936 0.0097136265 0.17665194 -0.0046195067 -0.048534453 -0.24611557 0.004850714 0.008473199 -0.05465898 0.18333186 -0.0022116741 0.09091652 0.0009049254 -0.09504431 0.13628666 -0.122063816 0.08304182 -0.17239413 -0.26720977 -0.058493264 0.14982975 -0.01933928 -0.20030601 -0.028199125 0.05558262 -0.027870186 0.03318494 -0.052191526 -0.0529618 -0.16642845 -0.042819545 0.09178014 0.09699468 -0.17078277 0.03703955 -0.07929875 -0.109081194 0.11862158 0.21965912 0.044994567 -0.00045619815 -0.0765699 0.06796472 -0.0043840036
22 0.01711591 0.06386828 -0.01635134 -0.019944372 0.18038112 0.09286635 -0.09783072 -0.026619108 -0.09262289 -0.021765573 -0.09386139 -0.08605507 -0.11012463 -0.0636693 -0.032661345 0.008601033 0.01969868 -0.16380244 0.07570561 0.15494451 0.118917316 -0.06481543 -0.16784813 -0.035965726 -0.0709146 -0.05665438 -0.050158817 0.08921203 0.08016904 -0.19521937 -0.00013615773 -0.030857442 0.06050863 -0.1001504 -0.18555741 0.11464267 0.0802731 -0.16951305 -0.04979097 0.0021353567 0.11398606 -0.040722966 -0.17947955 -0.088602185 0.11407273 -0.1258029 0.08133059 0.17247069 -0.0104964655 -0.026644029 0.059811607 -0.011505971 -0.12330908 0.14837809 0.080825254 -0.035152342 0.06775128 -0.03218849 -0.007452154 -0.0074018845 0.035544056 -0.19323874 0.068790704 -0.045191552 -0.041110896 -0.089249484 -0.023413165 0.044953924 0.0513071 -0.3225683 -0.015665188 0.04153686 0.074997246 0.0076533817 0.04732282 0.07638154 -0.13181537 -0.08750854 -0.1245874 -0.14473513 0.11142008 0.088879995 -0.20237888 0.06571051 -0.021317651 0.0024893784 0.18073505 -0.029847672 -0.06522472 -0.23764217 -0.0044836923 -0.0052594165 -0.01364958 0.15930009 -0.011701173 0.07940039 0.018258872 -0.13699633 0.13409986 -0.14498633 0.10032285 -0.20667158 -0.30352077 -0.025692808 0.119288206 -0.0027499876 -0.18707487 -0.0024680512 0.010713822 -0.09328965 0.03303423 -0.07350477 -0.04565461 -0.1770363 -0.09198322 0.12784477 0.11248122 -0.15008333 0.028327273 -0.1090954 -0.095565364 0.114508785 0.19478345 0.057876866 0.00814586 -0.04160249 0.06466705 -0.06145921
23 -0.00081949815 0.074759744 0.01656437 0.0015739372 0.13108633 0.14795133 -0.088374294 0.038939815 0.03329266 -0.028543593 -0.08097855 -0.08241823 -0.115525626 0.00524147 -0.031509373 0.02267025 0.037798192 -0.21261863 0.046393134 0.132405 0.084182635 -0.004670804 -0.16718198 -0.038441863 0.0017229381 -0.1320719 -0.035861943 0.05501909 0.08648719 -0.13810024 -0.028699826 -0.11158536 0.05480613 -0.06851109 -0.19222958 0.10744696 0.064471155 -0.25270942 -0.029426444 0.022668151 0.023233913 -0.08173933 -0.18786581 -0.05180169 0.15570554 -0.13501923 0.059801117 0.077366196 -0.044211905 -0.029555852 0.11568943 -0.009830871 -0.14089781 0.12545854 0.12891147 -0.05138335 0.047767665 -0.026569914 0.018267363 -0.023871465 0.051943757 -0.072780974 0.016203856 -0.06911504 -0.091364525 -0.13863295 -0.03086132 0.034455597 0.03666847 -0.26875186 -0.05239521 0.15276088 0.03079851 0.0046292213 0.030984651 0.1382788 -0.11653091 -0.07322077 -0.11661151 -0.116998985 0.093662776 0.083067484 -0.20505041 -0.06527743 -0.0023008112 0.031295504 0.18434317 0.014478497 -0.027286883 -0.26357886 0.005597313 0.016876368 -0.08613418 0.20211074 0.007266895 0.105384134 -0.015100952 -0.06267057 0.13490681 -0.09200369 0.07114743 -0.14149027 -0.23863105 -0.08990277 0.17127068 -0.04410574 -0.20802103 -0.046103377 0.100667514 0.026126793 0.02926187 -0.037372176 -0.06579277 -0.1530027 -0.008017753 0.06146693 0.083992966 -0.19379425 0.043173734 -0.05464229 -0.11817174 0.11846131 0.24036624 0.02554952 -0.01088026 -0.10670814 0.072990976 0.053113174
15 0.001136181 0.071202755 -0.00080263533 -0.009392516 0.15162379 0.12240461 -0.096524365 0.014884295 -0.025488948 -0.029013272 -0.08951724 -0.084380716 -0.11167482 -0.025020413 -0.02973663 0.021362167 0.027913902 -0.19081329 0.05860049 0.14398193 0.10648411 -0.027766548 -0.16795468 -0.04260744 -0.030412601 -0.09592617 -0.039936025 0.07049263 0.081995524 -0.17087717 -0.011753063 -0.07587047 0.063371904 -0.08184866 -0.18694724 0.110976 0.0715702 -0.2168414 -0.036739826 0.01479968 0.06519072 -0.060465083 -0.18565251 -0.068719305 0.13763377 -0.13155068 0.07094993 0.12186354 -0.029770372 -0.029643483 0.09329531 -0.013112549 -0.1379836 0.13932665 0.109639354 -0.043103036 0.056275766 -0.022285137 0.009502604 -0.015804589 0.047710493 -0.13485599 0.033865064 -0.06005284 -0.064250275 -0.11606878 -0.02343015 0.03901945 0.041506242 -0.29910365 -0.039111257 0.104255006 0.046039168 0.0060409806 0.038000606 0.11089352 -0.12476655 -0.08070009 -0.11821941 -0.12536381 0.10433044 0.08422545 -0.20412841 -0.01125103 -0.016088566 0.011884607 0.1796542 -0.0022898181 -0.042534705 -0.25168455 0.0016405677 0.0025556257 -0.051926132 0.18145177 0.003032577 0.09903045 0.00034096348 -0.09817509 0.13935825 -0.11600683 0.08524622 -0.16863596 -0.2642753 -0.060641296 0.15118225 -0.022923319 -0.19935893 -0.026605723 0.057095274 -0.0236474 0.031295594 -0.048326813 -0.05393951 -0.16286623 -0.042313907 0.09411549 0.09778799 -0.17198858 0.03758368 -0.081315316 -0.10300664 0.11723525 0.22466227 0.041055284 -0.0013117077 -0.07873791 0.064787336 0.0023061063
13 0.012916971 0.067487955 -0.01684912 -0.016831554 0.16980469 0.09741765 -0.09681279 -0.013432348 -0.081261456 -0.024229228 -0.08919719 -0.08226741 -0.111815766 -0.054882526 -0.026261104 0.012965062 0.024471384 -0.16164231 0.06985207 0.1493717 0.11744598 -0.054662194 -0.15911536 -0.029943176 -0.060155164 -0.06094898 -0.05020069 0.08238737 0.08352795 -0.18406697 -0.0025182888 -0.037896432 0.05941934 -0.10207024 -0.18070127 0.107274234 0.07635187 -0.17722227 -0.043593183 0.0066783614 0.104770795 -0.039501276 -0.17850032 -0.083823055 0.11321441 -0.124525934 0.07275963 0.15258464 -0.017305205 -0.03177359 0.07006673 -0.016567653 -0.1267731 0.14509276 0.08547273 -0.037237138 0.07053191 -0.024780944 -0.0016244297 -0.006284565 0.03763172 -0.18159953 0.059361387 -0.043091677 -0.040782686 -0.09173785 -0.016864415 0.04887871 0.04800715 -0.31543362 -0.020518452 0.059324387 0.06790013 0.0055684326 0.05204294 0.08741083 -0.122942515 -0.08624066 -0.118332416 -0.13704568 0.1083313 0.08296049 -0.20437457 0.040989842 -0.020517496 0.00038423907 0.18032502 -0.025895052 -0.06214364 -0.237849 -0.009601206 -0.009662242 -0.024308186 0.16041754 -0.010335568 0.08258026 0.01675528 -0.12431975 0.13665132 -0.1376159 0.09307344 -0.19551592 -0.29120594 -0.036074094 0.12736237 -0.003381636 -0.19066702 -0.008759074 0.021944748 -0.07478857 0.027432226 -0.06419071 -0.047868565 -0.16870272 -0.079712614 0.116635896 0.109343305 -0.15597893 0.031191314 -0.10257456 -0.10031152 0.115066804 0.20369709 0.05582501 0.010016392 -0.05687297 0.06414072 -0.050263077
17 0.009170841 0.06930323 -0.035808887 -0.02840275 0.18914068 0.07062537 -0.1029378 -0.037329007 -0.15104392 -0.019332934 -0.095007606 -0.07350389 -0.10808008 -0.09954759 -0.028745601 0.015110895 0.002832361 -0.12248332 0.07625308 0.1716373 0.14394806 -0.08763678 -0.1648902 -0.040609192 -0.100823425 -0.016777623 -0.05841577 0.11837923 0.06415286 -0.21350819 0.013924571 0.014708742 0.054787546 -0.098483086 -0.15642798 0.11284533 0.069318905 -0.121323116 -0.043742225 -0.008182516 0.13631046 -0.017659571 -0.15292892 -0.09560061 0.08475786 -0.111726485 0.091802105 0.21146677 0.008537023 -0.036570128 0.050696723 -0.028290201 -0.11503106 0.16860846 0.07592031 -0.02293589 0.07292309 -0.024994979 -0.0060726274 -0.00026876898 0.018205076 -0.24998584 0.07697324 -0.027770154 -0.015453842 -0.065823935 -0.005421579 0.04200967 0.052762248 -0.35489175 -0.0041488907 0.0063665863 0.08485613 0.011272671 0.04968838 0.061773878 -0.13544512 -0.09071241 -0.12513775 -0.14301294 0.123944335 0.08471779 -0.20121957 0.11257134 -0.04027904 -0.021793038 0.1854094 -0.053991072 -0.08522231 -0.21945 0.006578375 -0.02256704 0.014657673 0.13787909 -0.018487824 0.07372094 0.03815491 -0.16126966 0.14200218 -0.16139336 0.1035883 -0.22051553 -0.3160623 0.006921134 0.09284837 0.023698945 -0.17475843 0.016182328 -0.019717166 -0.12295643 0.03265999 -0.090077795 -0.027261302 -0.18247259 -0.11643416 0.1565216 0.12658694 -0.12792349 0.023942523 -0.12860312 -0.08297747 0.11871838 0.19565459 0.075426415 0.022118421 -0.01719563 0.059314992 -0.11137791
27 0.0011127021 0.071360834 -0.0032702605 -0.0060015777 0.14853282 0.13069765 -0.101532914 0.02043841 -0.01553554 -0.029509125 -0.09560199 -0.08573597 -0.11689949 -0.020003559 -0.03120188 0.027395139 0.02811936 -0.19539648 0.061901238 0.15017386 0.10383425 -0.03177315 -0.17560224 -0.044749998 -0.027925495 -0.10461145 -0.041678414 0.07212256 0.08261127 -0.16172045 -0.017728327 -0.07757324 0.06389827 -0.08882113 -0.1884787 0.107866704 0.07357638 -0.22709338 -0.03284487 0.016941516 0.059794266 -0.06417724 -0.19113603 -0.07037833 0.14226918 -0.12871403 0.06763957 0.11485228 -0.03042596 -0.033276122 0.10855472 -0.016320387 -0.13949433 0.14550759 0.119048 -0.04762494 0.06120243 -0.024173101 0.008057169 -0.017315222 0.047072213 -0.12604406 0.0370146 -0.061872687 -0.06861269 -0.12462422 -0.027635645 0.044903226 0.041867923 -0.30348542 -0.037670482 0.114290476 0.050248064 0.0064857164 0.035532467 0.12163776 -0.12217043 -0.08180205 -0.11970114 -0.12770197 0.0968666 0.08538456 -0.21001309 -0.020843692 -0.01875968 0.014406902 0.18962789 -0.0014429586 -0.043854717 -0.25643602 0.0051767076 -0.00030740528 -0.06230827 0.18656409 -0.00043469734 0.098114274 0.0022608838 -0.09409149 0.1418104 -0.11978702 0.08914156 -0.16342933 -0.26457238 -0.06582658 0.14961654 -0.025461981 -0.20861612 -0.027424343 0.06510615 -0.015783353 0.031337246 -0.052999165 -0.056820977 -0.17093773 -0.033297114 0.09358716 0.10198908 -0.1799981 0.04029248 -0.084268875 -0.11231167 0.12135991 0.23439845 0.04617956 0.0033885972 -0.08623789 0.07554105 0.002645802
10 0.007170567 0.069145985 -0.0057490147 -0.007249253 0.14732918 0.11440851 -0.08978858 0.007654328 -0.027906394 -0.023948198 -0.086131364 -0.081339836 -0.10411296 -0.028645774 -0.03155176 0.02144496 0.024178462 -0.1748929 0.056807466 0.14271724 0.09713822 -0.032121673 -0.1615335 -0.03741754 -0.040560752 -0.08926074 -0.04295522 0.06825004 0.0819571 -0.15484653 -0.008252354 -0.066889346 0.056328427 -0.08742813 -0.18397552 0.10751679 0.06941692 -0.20460218 -0.040158514 0.01168675 0.069287434 -0.05196049 -0.18076453 -0.071493514 0.12828621 -0.122944444 0.06831331 0.11589902 -0.027993035 -0.033204433 0.08432465 -0.015963245 -0.12602058 0.13111584 0.10306934 -0.043923467 0.0556411 -0.026034446 0.008915675 -0.012029572 0.0428382 -0.13331245 0.049137708 -0.053630337 -0.05843192 -0.1091767 -0.023929741 0.039909683 0.040107783 -0.28961527 -0.027548416 0.08742074 0.05454261 0.003476984 0.04161536 0.104304805 -0.12013004 -0.08017196 -0.115558945 -0.12595427 0.096823215 0.08408781 -0.20082764 -0.00061156775 -0.016238661 0.013179617 0.17317468 -0.010762377 -0.041681845 -0.24057645 -6.439832e-05 0.00067155866 -0.049605712 0.17599148 0.0007679545 0.087502256 0.004722897 -0.096371114 0.12792873 -0.11698783 0.08889875 -0.1690791 -0.26978168 -0.055735044 0.13707268 -0.02324801 -0.19053692 -0.018073978 0.051652152 -0.030124452 0.033021074 -0.054184508 -0.051604304 -0.15995878 -0.05186631 0.08901361 0.10087648 -0.16394138 0.03511304 -0.085276596 -0.101022005 0.11719423 0.21349676 0.040873602 -0.0019036967 -0.07438749 0.06546038 -0.00957793
19 0.0022782758 0.06868636 0.0071399584 -0.009861654 0.15614395 0.13520199 -0.09372274 0.019761885 -0.010470214 -0.03002462 -0.09376149 -0.088376395 -0.11643832 -0.015550728 -0.03162533 0.025639223 0.031681105 -0.19563302 0.05567235 0.15009312 0.10255529 -0.024960823 -0.17163558 -0.03614529 -0.02609078 -0.10593477 -0.045207415 0.06366533 0.085165605 -0.16359256 -0.014335422 -0.08768152 0.060614064 -0.09004076 -0.19688536 0.116147935 0.07616275 -0.23706913 -0.03748221 0.020609407 0.063595474 -0.07433232 -0.19690621 -0.07001655 0.14825034 -0.13399643 0.0743484 0.116493516 -0.029845603 -0.0321775 0.10710998 -0.01635496 -0.14208083 0.14002244 0.115957074 -0.052210547 0.06158381 -0.03026292 0.013082447 -0.018863915 0.047844715 -0.13232541 0.03596386 -0.06390877 -0.075946555 -0.13276932 -0.029798152 0.037787728 0.042155802 -0.311818 -0.041883986 0.119708344 0.04264167 0.006711272 0.040944878 0.12604 -0.13313158 -0.08646664 -0.12657075 -0.13002767 0.10066556 0.090509996 -0.21432549 -0.021922395 -0.00875906 0.017371686 0.19102584 0.0044689476 -0.046092633 -0.26464978 0.0018030321 0.011409405 -0.061274726 0.20018028 0.0033419721 0.09831349 -0.0025984598 -0.09496699 0.14633176 -0.12150549 0.08699112 -0.16985449 -0.2814528 -0.07042187 0.16311075 -0.027666295 -0.2152176 -0.03363662 0.072565176 -0.011756833 0.03103045 -0.047181446 -0.055220332 -0.17248239 -0.038971156 0.09229361 0.0981033 -0.19270226 0.0404055 -0.0776227 -0.11612463 0.12068591 0.24176587 0.040655438 0.0016021831 -0.09238499 0.07529591 0.011689601
16 -0.0021870139 0.06971817 0.0028952234 -0.0025223233 0.13790879 0.12973909 -0.09065798 0.023300622 -0.005109133 -0.03195547 -0.08797634 -0.08473213 -0.11278965 -0.011945347 -0.029566944 0.023474395 0.036277622 -0.18376705 0.052695096 0.13771415 0.0959997 -0.021764034 -0.1588772 -0.036163732 -0.020493507 -0.10719591 -0.040797316 0.06393133 0.07976266 -0.15273698 -0.020259865 -0.08112544 0.060270414 -0.076191954 -0.1786759 0.10139818 0.063049406 -0.2219912 -0.0319368 0.016451847 0.045010578 -0.07044498 -0.18253143 -0.06273176 0.13791348 -0.12318379 0.06499849 0.102406956 -0.031328 -0.029091427 0.10458275 -0.011076355 -0.1308692 0.1333743 0.1164438 -0.044456296 0.055671226 -0.027024895 0.014248834 -0.015374955 0.050330825 -0.10502716 0.033186294 -0.061975274 -0.070942484 -0.12509371 -0.024512738 0.03896683 0.040374864 -0.27828103 -0.040352266 0.11941638 0.03594339 0.0044512786 0.03538233 0.116849214 -0.118065454 -0.07974583 -0.11875901 -0.123263426 0.092149146 0.08324986 -0.20061052 -0.03036902 -0.0112664 0.016346762 0.17583616 0.0050315685 -0.040595785 -0.24760304 0.00929168 0.0070556356 -0.066083275 0.1864727 -0.00037981098 0.09337098 -0.0025471265 -0.08302242 0.12913853 -0.10217871 0.0766778 -0.15491943 -0.25001568 -0.07019453 0.151047 -0.031068154 -0.20170486 -0.033930924 0.06774992 -0.0069283475 0.032947633 -0.04487951 -0.052812465 -0.16039382 -0.025705306 0.07673429 0.0912784 -0.17876826 0.036590863 -0.0680285 -0.10920531 0.11676115 0.22244403 0.03816335 -0.006143259 -0.08518279 0.06797068 0.021077013
18 0.012703152 0.06092245 -0.009010506 -0.015465017 0.1690342 0.09449545 -0.096518174 -0.016570095 -0.07905015 -0.023945708 -0.09055973 -0.08201654 -0.10796593 -0.056280624 -0.030844925 0.008411883 0.02502995 -0.16253105 0.070401795 0.14517252 0.11125261 -0.056889288 -0.1599757 -0.03338749 -0.06429073 -0.060161132 -0.046433594 0.08582295 0.08235639 -0.18027945 0.0021212269 -0.034355372 0.058243085 -0.09926033 -0.1777846 0.10874427 0.07241847 -0.173862 -0.042083602 0.011083717 0.102644555 -0.044229396 -0.17522138 -0.08169834 0.11277627 -0.11720632 0.077245936 0.15286554 -0.012875926 -0.027088039 0.06721598 -0.012205652 -0.12208597 0.14437927 0.08708163 -0.032859422 0.061643936 -0.02736186 -0.0043177153 -0.012251591 0.036181502 -0.17618291 0.066007316 -0.041370496 -0.046766553 -0.088446505 -0.021349048 0.047589455 0.048440404 -0.30797654 -0.018813657 0.0540871 0.062437486 0.0042504543 0.048503775 0.08129944 -0.1251926 -0.0808562 -0.11635485 -0.13534744 0.10294246 0.083065 -0.19381787 0.04572801 -0.019515812 0.005871717 0.17335603 -0.022922276 -0.060661763 -0.2334331 -0.005470951 -0.0085014785 -0.02386235 0.15435487 -0.010540063 0.077095024 0.013277985 -0.124679774 0.12977017 -0.13540214 0.09303774 -0.19189402 -0.28582144 -0.0331514 0.11700962 -0.0067329435 -0.18492764 -0.005633507 0.01774369 -0.07093274 0.031641427 -0.064896196 -0.040751774 -0.17069657 -0.073061064 0.11544171 0.107132584 -0.15195401 0.0267507 -0.0965678 -0.09340781 0.11433675 0.19392644 0.051867474 0.0069118566 -0.0515755 0.064563066 -0.05097857
12 0.014447278 0.06164811 -0.018493133 -0.013390532 0.16172953 0.086361505 -0.09619095 -0.018388147 -0.090738446 -0.026312076 -0.08978346 -0.078597546 -0.10891467 -0.06368293 -0.024497047 0.0114236185 0.014210179 -0.14617126 0.06463744 0.14699219 0.120085806 -0.06258748 -0.15319572 -0.03635361 -0.066464685 -0.05312908 -0.04947163 0.09175283 0.07653725 -0.17790425 0.00041679273 -0.027846321 0.055549387 -0.092003845 -0.17201662 0.10706294 0.068901755 -0.15955186 -0.03732089 0.0014563933 0.09963042 -0.039729185 -0.16875912 -0.08510485 0.105494425 -0.118952714 0.075459555 0.16065966 -0.00925698 -0.029307079 0.06642643 -0.015348996 -0.11654 0.14269222 0.081245705 -0.038427033 0.06953051 -0.02255198 -0.005172188 -0.008398162 0.03294245 -0.17875965 0.06443897 -0.040997382 -0.038697977 -0.08844607 -0.018194651 0.045854647 0.04594181 -0.31252372 -0.016176129 0.048265014 0.06766706 0.005710914 0.04500293 0.07801578 -0.12580058 -0.08418084 -0.12186973 -0.13667554 0.10450137 0.08587032 -0.19374922 0.055785622 -0.021605127 0.0009576248 0.17791879 -0.028308969 -0.05737103 -0.2284516 -0.006066243 -0.0122688 -0.022556331 0.15258414 -0.012916458 0.07558443 0.02393739 -0.12188504 0.13242489 -0.1363212 0.09157521 -0.18822049 -0.28156197 -0.027921222 0.11735537 -0.0039253156 -0.1774574 -0.003930986 0.011088671 -0.08293089 0.029794738 -0.0690666 -0.042177286 -0.16611126 -0.08289678 0.11381364 0.10307739 -0.14432625 0.0314141 -0.10041518 -0.0912474 0.108210005 0.19331385 0.051635694 0.007231052 -0.04049127 0.06095802 -0.052318178
